不 -0.011492 0.004991 0.005604 -0.005132 0.004547 -0.001565 -0.010425 0.002181 0.011443 0.002357 0.000227 0.015692 -0.000443 0.011704 0.008069 0.007670 -0.004732 -0.004562 0.002062 -0.003093 0.000493 0.000961 0.000630 0.003086 -0.018236 0.002500 -0.005203 -0.005351 -0.013742 -0.013555 0.001398 -0.007354 -0.010415 0.005228 -0.011568 -0.006709 0.001889 -0.003181 -0.006378 -0.004547 0.000094 0.015353 -0.010359 -0.002200 0.009178 -0.000516 0.003696 0.003528 0.013734 0.004840
检索 -0.004364 -0.013461 0.002522 -0.001097 -0.012046 -0.014041 -0.004328 0.002364 -0.010884 -0.000305 0.003097 0.001816 -0.010205 0.008165 0.011163 -0.017818 0.013010 -0.009967 -0.002527 0.007017 0.008704 -0.007605 0.016206 0.005982 0.001618 -0.004891 0.011557 0.004311 -0.009621 -0.001131 -0.014903 0.003894 0.004221 0.008189 0.003714 -0.006984 0.014719 -0.002464 0.014192 -0.014043 -0.001851 -0.004215 0.009277 0.006756 -0.013929 -0.000131 0.009509 -0.001836 -0.011949 0.006064
的 -0.002264 -0.000828 0.001966 -0.015372 0.019003 -0.002515 0.016159 0.003442 0.006127 -0.006211 0.009018 -0.010285 -0.002871 -0.001900 0.012280 -0.011041 -0.007247 0.009646 0.003265 -0.002502 -0.012739 0.000445 0.005702 -0.005330 -0.013355 -0.014470 0.004470 0.005593 -0.005427 -0.008664 -0.008818 0.012329 -0.009592 -0.006760 -0.002965 -0.010576 -0.009349 0.013200 -0.007131 -0.003146 -0.013257 -0.018183 -0.013436 0.004109 0.000003 -0.001394 -0.006846 0.012835 0.008420 -0.003667
不检索 0.015574 -0.003352 0.015944 0.010137 0.003351 0.001501 0.014492 -0.010953 -0.003838 -0.014150 0.000276 0.008518 -0.003713 -0.006526 0.005525 0.005778 0.004119 -0.001306 -0.001370 0.000950 0.005598 0.000504 0.007474 -0.010230 -0.019450 0.006257 0.002903 0.013341 -0.005399 -0.000759 0.003673 -0.009825 -0.004111 -0.000383 0.000312 -0.000759 0.001118 -0.005196 -0.011712 -0.002720 0.000653 0.008564 -0.014202 0.016940 0.002037 0.011323 0.002718 0.006156 -0.009983 0.001348
些 -0.003552 -0.018937 -0.005198 0.006037 -0.016348 0.001079 0.008427 -0.004346 -0.004320 0.007109 -0.001538 0.005974 -0.015906 -0.000530 0.006123 0.002396 0.000215 0.000756 -0.008945 -0.003389 0.002365 0.000182 0.003056 0.019099 0.000882 -0.005803 0.001212 -0.011015 0.005450 0.003012 -0.005640 -0.000078 0.005133 -0.009611 0.006078 0.006411 -0.008138 -0.007164 0.002787 0.005770 0.001027 0.001018 -0.007961 0.005577 -0.018883 0.016897 0.005793 0.002494 -0.003563 -0.002174
什么 -0.001447 0.016406 0.002580 -0.002317 -0.000826 -0.003531 -0.002273 -0.013335 0.001739 0.000947 0.001389 0.000922 0.005447 0.014029 -0.012511 -0.008508 -0.018050 -0.000008 -0.005036 0.005961 0.001390 -0.003307 -0.000002 -0.012264 -0.003187 -0.003944 0.014001 -0.002538 -0.005206 0.013465 -0.002781 0.013985 0.012350 -0.001190 0.010243 0.008964 -0.005970 0.009418 -0.003680 -0.005878 0.011675 -0.000385 -0.004336 -0.004940 -0.009445 0.001684 0.007956 -0.008091 0.003254 0.003464
何 -0.015489 -0.002112 -0.001970 -0.008852 0.015938 -0.005696 -0.014863 -0.006532 0.007821 -0.002490 0.009535 0.000086 -0.011076 0.007494 -0.008236 -0.002317 0.000915 -0.000143 -0.004123 -0.002737 0.011212 0.014108 -0.007841 -0.013701 0.003437 0.014791 -0.005460 -0.003937 -0.001288 -0.004880 -0.004686 0.001600 -0.005192 -0.006623 -0.005596 -0.010208 0.007520 -0.001207 0.002362 -0.005761 -0.003871 -0.007437 0.015142 0.004156 0.000240 -0.014639 0.001877 0.001942 0.006035 -0.003901
冲 -0.002924 -0.009049 -0.009357 0.003645 -0.004773 -0.014304 -0.002112 0.011510 0.003576 -0.005832 -0.012906 0.006022 0.008600 0.000528 -0.000380 -0.001821 0.007607 -0.001621 0.000856 -0.017971 -0.005228 -0.007005 -0.003174 -0.000848 0.012640 0.002678 0.001368 -0.006019 0.008930 -0.001554 0.012009 0.006013 -0.010597 0.002658 -0.010348 0.004624 -0.011645 -0.012454 -0.003859 0.011930 0.001713 0.003229 0.017952 0.010320 0.003757 -0.002435 0.008492 0.011364 -0.004055 0.009355
卫生 -0.009283 0.002353 0.010227 0.009870 -0.005009 -0.007095 0.011241 -0.011027 0.001837 0.009690 0.000985 0.007848 -0.000909 0.003641 -0.002496 -0.016282 0.011995 0.005050 -0.000144 0.003921 0.006763 0.003084 0.001869 0.017080 0.006842 -0.000569 0.005577 -0.001790 -0.004624 -0.005071 0.011606 0.006094 -0.002718 0.001833 -0.004036 0.012272 0.014737 -0.012795 -0.018756 -0.003424 -0.003106 0.002230 0.004423 -0.004015 0.005871 -0.018073 -0.000297 -0.002135 0.006978 -0.000442
哪 -0.005193 0.000309 0.002922 0.010604 0.008661 0.003509 -0.002301 0.007364 -0.001806 -0.008640 -0.001256 0.005332 0.007220 0.002326 0.001157 0.000816 -0.004040 -0.010662 0.001169 -0.008235 0.005277 0.004220 -0.002140 0.002616 -0.009192 -0.001435 0.000614 0.008348 0.006554 0.000825 -0.009820 -0.000243 0.003590 0.012937 0.009815 -0.007421 0.016170 -0.013507 -0.000208 -0.003980 -0.001711 -0.001727 -0.000464 0.006637 -0.001021 0.001399 -0.012484 0.016852 -0.013040 -0.010335
好处 -0.007538 0.013886 0.005242 -0.007045 -0.015717 0.004382 -0.006398 0.012646 -0.009872 0.013224 0.002360 0.009204 -0.004128 -0.004363 -0.000168 -0.012362 -0.007747 0.006476 0.007612 -0.012779 0.004498 0.006239 -0.013230 0.011007 -0.013449 -0.012556 0.018678 -0.017573 -0.004658 -0.011933 -0.009029 0.007899 -0.017654 -0.003791 0.000856 -0.013042 0.000192 -0.005546 -0.000811 0.010322 -0.012412 0.001462 -0.000475 0.003139 -0.002815 -0.000230 0.011190 -0.010476 0.005832 -0.001611
如 -0.009836 0.004328 0.003515 0.001288 0.012456 0.011614 -0.000524 0.013439 0.007490 0.008387 0.005216 -0.005629 0.011421 0.001346 0.014516 -0.001954 -0.017720 -0.010672 0.017220 0.012340 -0.002834 -0.000761 -0.008814 -0.001079 -0.005088 -0.007912 0.010139 0.004503 0.017168 -0.011913 0.001410 -0.012436 0.013853 0.004972 0.009573 0.005379 -0.001928 -0.009328 -0.000296 -0.016141 -0.001631 0.004609 -0.001536 -0.009325 0.006738 -0.007870 -0.011321 0.008370 0.001692 -0.014714
拍 -0.002307 0.004201 0.012129 -0.002505 -0.001554 -0.016712 0.008186 0.004030 -0.019329 -0.002363 0.005943 -0.010822 -0.009374 0.011745 -0.002187 -0.002726 -0.010404 -0.011220 -0.003973 -0.008068 0.006362 0.001397 0.010236 -0.002411 0.009008 0.002236 0.005211 -0.003203 0.002758 0.011882 -0.002761 0.001963 -0.005606 0.009371 -0.002201 -0.006298 -0.007642 -0.013468 -0.001641 -0.006026 0.004188 0.003558 0.002269 -0.004558 -0.004776 -0.018154 -0.007321 0.004075 -0.010258 -0.009648
教师 -0.003220 0.011062 0.006228 -0.006247 -0.000189 0.008723 -0.000041 0.015858 -0.008109 0.009570 -0.007458 0.013391 -0.015353 -0.020631 -0.008534 -0.002115 -0.004864 -0.000971 -0.005397 -0.010529 -0.016503 0.000043 -0.010127 -0.001882 -0.004252 -0.007182 0.010020 0.001014 0.000971 -0.001588 -0.002886 -0.002365 -0.010342 0.004562 -0.007811 0.009961 -0.006270 -0.008756 0.005758 0.006924 -0.000174 -0.002203 0.000316 0.006196 0.000194 0.012593 0.002427 0.014796 -0.009885 -0.002421
有 -0.006255 -0.000220 -0.005246 -0.008393 -0.004858 0.007658 0.002510 0.015548 -0.010123 -0.017583 0.012812 0.008361 -0.005997 0.017234 0.000628 0.003740 -0.009614 0.011645 -0.009300 -0.003546 -0.006962 -0.011166 0.015623 -0.002558 0.008948 0.007897 0.000906 0.004545 -0.001532 -0.000259 0.007656 0.012115 -0.001234 0.003680 -0.015311 -0.006386 -0.008788 0.006431 -0.011837 0.000307 0.009166 0.001826 -0.010743 -0.017099 -0.001323 0.009893 0.007101 0.008893 0.001897 -0.002464
林 0.014550 0.006302 0.001082 -0.007588 -0.004414 0.008921 0.013381 -0.000136 -0.012434 -0.006591 -0.012203 -0.000123 0.012423 0.010858 -0.015943 0.006172 0.001741 0.010763 -0.004935 0.002557 0.000009 0.016568 0.011843 0.002949 -0.004980 0.001796 0.010035 0.003856 0.003597 0.007405 0.008988 -0.001853 -0.006294 -0.009931 0.010565 0.009286 -0.001010 0.003946 -0.010844 -0.013450 -0.002651 -0.003054 -0.013572 -0.010228 0.007803 -0.009509 0.015944 0.009544 0.001253 -0.008992
桂花 0.001402 0.007280 0.003837 0.004289 0.003003 -0.014358 -0.005553 -0.013793 -0.010431 0.001347 -0.004567 0.007253 -0.004574 0.005595 -0.001894 0.004842 0.004629 0.001898 -0.006345 0.011306 -0.000808 0.010617 0.017786 0.008868 -0.001236 -0.011820 0.004691 0.008481 -0.010690 0.016278 0.000342 -0.009616 0.003972 0.004186 -0.005335 -0.013522 0.009825 -0.010881 -0.007305 -0.001009 -0.009205 -0.011954 0.006648 0.005897 -0.006275 -0.015256 -0.009668 -0.001563 0.006653 0.004394
桂 0.006077 -0.004880 0.006714 -0.004809 -0.006337 -0.005301 0.000251 0.001758 0.003928 -0.003674 0.001951 -0.005581 -0.000025 0.006083 -0.010879 -0.013777 0.015954 -0.001935 -0.001071 -0.004834 -0.011341 0.007076 0.001866 -0.005395 0.000746 0.006609 0.005192 -0.001089 -0.006657 -0.010432 0.008139 -0.000576 0.004687 -0.005144 -0.005389 -0.001650 0.009551 -0.005135 0.000107 0.013478 -0.008812 -0.017945 -0.012102 -0.008838 -0.011858 -0.002982 -0.002614 0.004097 -0.004917 -0.003684
棉条 0.003741 0.003394 0.001126 0.018347 0.004138 0.007737 0.003537 0.003051 0.001082 -0.006895 -0.008811 0.000505 -0.002208 0.006044 0.015119 -0.003857 -0.004405 -0.010016 -0.003749 0.009072 0.001175 -0.001694 0.016969 -0.007662 -0.013554 -0.006014 -0.010274 -0.009458 0.009068 -0.013959 -0.010195 -0.007191 0.009434 0.010931 -0.008845 -0.006428 -0.001332 0.014692 -0.003376 -0.000250 -0.012203 0.007813 0.000256 -0.014411 -0.006142 0.015374 0.001732 -0.010547 -0.014642 -0.002018
步骤 0.006266 -0.003772 -0.004385 -0.001189 0.002844 0.009258 0.008568 0.013088 -0.001603 -0.005396 0.003116 -0.008603 -0.015720 -0.005745 0.002440 -0.002618 0.012777 -0.003069 0.014290 -0.007561 0.004966 0.001828 0.012592 0.010693 0.016178 0.007765 -0.007861 -0.014575 -0.006628 -0.009725 0.003998 0.000116 0.006517 -0.000785 0.018920 0.009278 -0.011133 0.007086 0.002374 0.007674 -0.017987 0.005817 -0.001336 -0.013620 -0.000255 -0.018501 0.003762 0.012196 -0.001569 -0.001949
流 -0.017094 0.001985 0.017003 0.013572 -0.004178 0.004644 -0.013815 0.001299 -0.000815 -0.002332 0.005788 -0.001822 0.003596 -0.016024 -0.002595 0.012254 -0.005933 -0.015650 -0.003809 0.002046 -0.013037 0.000870 -0.000970 -0.007808 0.000382 0.001272 -0.003037 -0.008017 -0.001236 -0.005615 -0.002348 0.002806 -0.005689 -0.004814 -0.001888 -0.008241 0.000287 0.004020 0.012163 -0.000701 0.000401 -0.000606 -0.001520 0.003738 0.003021 -0.003690 -0.002193 -0.004827 0.003261 -0.007434
片 -0.010164 0.012897 -0.001825 0.002644 -0.007440 -0.001956 0.000497 0.006581 -0.002687 0.014533 0.004223 0.001574 -0.010209 0.000073 -0.000977 0.001461 0.000820 0.002858 -0.006201 0.000163 -0.016389 -0.007899 0.000657 0.007855 0.015843 -0.003825 0.004138 0.011934 -0.002099 0.016839 0.009856 0.007710 0.008168 0.008010 -0.010340 0.002044 -0.014051 -0.010836 0.008508 -0.014493 0.004584 -0.006572 -0.013365 -0.005741 -0.007396 0.006141 -0.004244 -0.006308 0.008554 0.010190
王者荣耀 0.012741 0.002661 -0.005625 0.000321 -0.001947 0.010437 0.004265 0.009888 0.008920 0.000300 -0.000021 -0.003673 -0.010828 -0.012349 0.006005 0.011013 -0.006314 0.015535 -0.000588 -0.000805 -0.000475 0.012778 0.005779 -0.006229 -0.014566 0.012025 0.009996 -0.000082 0.001641 0.000080 -0.005922 -0.005550 0.002330 0.008442 -0.005624 0.000298 -0.000715 0.019040 0.010581 -0.012208 -0.000340 -0.009528 0.004137 -0.011491 -0.001802 -0.009452 -0.000888 0.011973 0.005674 -0.001067
考 -0.014416 -0.007581 0.017073 -0.000540 -0.002741 0.008796 -0.011310 -0.004053 0.011549 0.008599 -0.007944 0.004794 -0.007703 0.022308 0.000437 -0.007911 -0.002223 -0.000657 0.003632 -0.012570 -0.000955 0.012886 0.012279 0.006168 -0.008153 0.001100 0.006674 0.003065 0.007076 0.006574 0.014883 0.013174 0.018221 0.011442 -0.007587 -0.005221 0.001464 0.001151 -0.008376 -0.008429 0.010509 0.003323 -0.002576 -0.000247 0.002194 -0.002578 -0.006002 0.000563 -0.001364 0.016747
花 -0.003750 0.009271 -0.000699 0.003122 -0.019140 0.000500 -0.010794 0.004625 0.007310 0.014195 -0.000401 -0.000598 0.010916 0.011818 0.010795 -0.014836 -0.006492 0.011304 -0.003441 0.006203 0.000844 -0.000713 0.004314 0.001925 0.001809 0.002601 -0.004930 0.003228 0.000194 0.010945 0.011510 -0.003553 0.000218 0.010810 -0.000434 0.001074 0.011311 -0.011224 -0.014298 -0.001383 0.002974 -0.014699 0.018019 -0.006113 -0.002884 0.008814 -0.000947 0.010627 0.000115 0.015615
证 0.000654 0.014304 0.001289 0.003025 -0.003181 0.003912 -0.002159 -0.000277 0.004240 0.008941 0.011381 0.000191 -0.010796 0.002467 0.000126 0.010149 -0.005989 0.008848 0.015819 0.012275 0.012197 0.001651 0.010393 -0.014173 -0.001792 -0.000651 0.004217 0.009281 -0.000950 -0.000245 0.006212 0.000060 -0.004774 -0.012874 0.002726 0.011364 0.011052 0.001050 0.011334 -0.005424 -0.010414 0.003146 -0.004837 -0.000800 0.005704 -0.005235 -0.011455 -0.001141 0.003554 0.005118
资格 -0.003989 0.006975 0.001061 0.000717 0.004503 0.000878 0.006271 -0.004800 -0.001363 0.006219 -0.000733 0.000504 -0.000124 -0.016766 -0.017326 -0.006282 -0.002848 0.003811 -0.015185 0.011238 0.012686 0.007471 -0.014692 -0.007681 -0.006343 0.000874 0.001551 0.012839 -0.015066 -0.014174 0.003141 -0.001045 -0.009189 0.004968 0.000915 -0.001798 0.005904 0.005939 -0.007844 0.006588 -0.008345 -0.010059 0.005571 0.014385 -0.003419 0.008890 -0.013416 -0.005759 -0.008697 -0.009586
量 -0.015509 0.020175 -0.008151 -0.002177 -0.007329 -0.007760 -0.001583 0.005618 -0.003066 0.005656 0.010055 -0.003219 -0.000581 -0.006057 -0.002054 -0.002763 0.000221 -0.014953 0.007115 0.006730 -0.003305 -0.003024 -0.008081 -0.009633 -0.005763 0.000338 -0.001724 -0.013806 -0.009081 -0.010586 -0.008342 -0.002560 -0.011540 0.000996 0.013422 0.001417 -0.007111 -0.004384 -0.011970 -0.009621 0.000588 0.016686 -0.012365 -0.001392 -0.007551 0.005198 0.016031 -0.008916 0.012331 0.002917
<unk> -0.003181 0.002807 0.002700 0.000513 -0.001414 -0.000046 0.000332 0.002323 -0.000844 0.001022 0.001055 0.001701 -0.002969 0.001877 0.000293 -0.002239 -0.001593 -0.000315 -0.000468 -0.000244 -0.000216 0.002134 0.003079 -0.000413 -0.002295 -0.000369 0.003381 -0.000147 -0.001446 -0.001384 0.000596 0.000911 -0.000795 0.001832 -0.000648 -0.000817 0.000381 -0.001841 -0.002148 -0.002487 -0.002157 -0.001069 -0.001471 -0.000970 -0.001894 -0.001159 0.000305 0.002811 -0.000167 -0.000216
